digraph Tree {
node [shape=box, fontname="helvetica"] ;
edge [fontname="helvetica"] ;
0 [label="Title=Mr <= 0.5\nentropy = 0.955\nsamples = 712\nvalue = [444, 268]"] ;
1 [label="Pclass <= 2.5\nentropy = 0.89\nsamples = 293\nvalue = [90, 203]"] ;
0 -> 1 [labeldistance=2.5, labelangle=45, headlabel="True"] ;
2 [label="Sex=female <= 0.5\nentropy = 0.479\nsamples = 155\nvalue = [16, 139]"] ;
1 -> 2 ;
3 [label="entropy = 0.99\nsamples = 25\nvalue = [11, 14]"] ;
2 -> 3 ;
4 [label="entropy = 0.235\nsamples = 130\nvalue = [5, 125]"] ;
2 -> 4 ;
5 [label="Fare <= -0.178\nentropy = 0.996\nsamples = 138\nvalue = [74, 64]"] ;
1 -> 5 ;
6 [label="entropy = 0.966\nsamples = 102\nvalue = [40, 62]"] ;
5 -> 6 ;
7 [label="entropy = 0.31\nsamples = 36\nvalue = [34, 2]"] ;
5 -> 7 ;
8 [label="Fare <= -0.12\nentropy = 0.623\nsamples = 419\nvalue = [354, 65]"] ;
0 -> 8 [labeldistance=2.5, labelangle=-45, headlabel="False"] ;
9 [label="Age <= 0.241\nentropy = 0.497\nsamples = 321\nvalue = [286, 35]"] ;
8 -> 9 ;
10 [label="entropy = 0.548\nsamples = 237\nvalue = [207, 30]"] ;
9 -> 10 ;
11 [label="entropy = 0.326\nsamples = 84\nvalue = [79, 5]"] ;
9 -> 11 ;
12 [label="SibSp <= 1.5\nentropy = 0.889\nsamples = 98\nvalue = [68, 30]"] ;
8 -> 12 ;
13 [label="entropy = 0.918\nsamples = 90\nvalue = [60, 30]"] ;
12 -> 13 ;
14 [label="entropy = 0.0\nsamples = 8\nvalue = [8, 0]"] ;
12 -> 14 ;
}